digraph Tree {
node [shape=box, style="filled, rounded", color="black", fontname=helvetica] ;
edge [fontname=helvetica] ;
0 [label="Site EUI (kBtu/ft²) <= 15.95\nfriedman_mse = 1.0\nsamples = 6622\nvalue = 0.013", fillcolor="#f9e2d1"] ;
1 [label="Weather Normalized Site Electricity Intensity (kWh/ft²) <= 4.1\nfriedman_mse = 0.8\nsamples = 181\nvalue = 0.448", fillcolor="#f7dac5"] ;
0 -> 1 [labeldistance=2.5, labelangle=45, headlabel="True"] ;
2 [label="Largest Property Use Type_Multifamily Housing <= 0.5\nfriedman_mse = 0.58\nsamples = 142\nvalue = 0.648", fillcolor="#f7d7bf"] ;
1 -> 2 ;
3 [label="Property Id <= 2876220.5\nfriedman_mse = 1.0\nsamples = 51\nvalue = 0.02", fillcolor="#f9e2d1"] ;
2 -> 3 ;
4 [label="(...)", fillcolor="#C0C0C0"] ;
3 -> 4 ;
7 [label="(...)", fillcolor="#C0C0C0"] ;
3 -> 7 ;
10 [label="friedman_mse = 0.0\nsamples = 91\nvalue = 0.001", fillcolor="#f9e2d2"] ;
2 -> 10 ;
11 [label="Largest Property Use Type_Multifamily Housing <= 0.5\nfriedman_mse = 0.92\nsamples = 39\nvalue = -0.282", fillcolor="#fae7da"] ;
1 -> 11 ;
12 [label="Site EUI (kBtu/ft²) <= 11.0\nfriedman_mse = 0.673\nsamples = 14\nvalue = 0.571", fillcolor="#f7d8c2"] ;
11 -> 12 ;
13 [label="(...)", fillcolor="#C0C0C0"] ;
12 -> 13 ;
14 [label="(...)", fillcolor="#C0C0C0"] ;
12 -> 14 ;
15 [label="DOF Gross Floor Area <= 70196.0\nfriedman_mse = 0.422\nsamples = 25\nvalue = -0.76", fillcolor="#fcf0e7"] ;
11 -> 15 ;
16 [label="(...)", fillcolor="#C0C0C0"] ;
15 -> 16 ;
17 [label="(...)", fillcolor="#C0C0C0"] ;
15 -> 17 ;
18 [label="Site EUI (kBtu/ft²) <= 27.45\nfriedman_mse = 1.0\nsamples = 6441\nvalue = 0.0", fillcolor="#f9e2d2"] ;
0 -> 18 [labeldistance=2.5, labelangle=-45, headlabel="False"] ;
19 [label="Water Intensity (All Water Sources) (gal/ft²) <= 42.12\nfriedman_mse = 0.972\nsamples = 216\nvalue = -0.167", fillcolor="#fae5d7"] ;
18 -> 19 ;
20 [label="Weather Normalized Site Electricity Intensity (kWh/ft²) <= 3.85\nfriedman_mse = 0.966\nsamples = 71\nvalue = 0.183", fillcolor="#f8dfcd"] ;
19 -> 20 ;
21 [label="(...)", fillcolor="#C0C0C0"] ;
20 -> 21 ;
24 [label="(...)", fillcolor="#C0C0C0"] ;
20 -> 24 ;
27 [label="Weather Normalized Site Electricity Intensity (kWh/ft²) <= 5.65\nfriedman_mse = 0.886\nsamples = 145\nvalue = -0.338", fillcolor="#fae8db"] ;
19 -> 27 ;
28 [label="(...)", fillcolor="#C0C0C0"] ;
27 -> 28 ;
31 [label="(...)", fillcolor="#C0C0C0"] ;
27 -> 31 ;
34 [label="Order <= 14841.5\nfriedman_mse = 1.0\nsamples = 6225\nvalue = 0.006", fillcolor="#f9e2d2"] ;
18 -> 34 ;
35 [label="Property Id <= 5864827.5\nfriedman_mse = 1.0\nsamples = 6194\nvalue = 0.004", fillcolor="#f9e2d2"] ;
34 -> 35 ;
36 [label="(...)", fillcolor="#C0C0C0"] ;
35 -> 36 ;
39 [label="(...)", fillcolor="#C0C0C0"] ;
35 -> 39 ;
42 [label="Year Built <= 1987.5\nfriedman_mse = 0.824\nsamples = 31\nvalue = 0.419", fillcolor="#f8dbc6"] ;
34 -> 42 ;
43 [label="(...)", fillcolor="#C0C0C0"] ;
42 -> 43 ;
46 [label="(...)", fillcolor="#C0C0C0"] ;
42 -> 46 ;
}